{"levels":[{"inputs":[0.0,0.0,0.0,0.0,0.0],"outputs":[0.0,0.0,0.0,0.0,0.0,0.0],"weights":[[-0.026658515,0.037703015,0.038723793,-0.00036548846,-0.056031387,0.062401164],[0.00002018828,-0.12823294,0.022796672,0.014651652,-0.017595727,-0.030496161],[-0.022195645,-0.01932359,0.033034142,-0.041783188,0.031543396,0.032422233],[-0.05682721,0.015607179,-0.017083988,-0.112315714,-0.0098640425,0.0124022355],[-0.079752624,0.012149594,-0.033726066,0.03139124,-0.055955403,0.017631762]],"biases":[0.044255674,-0.08032672,0.028866718,0.09687593,0.075236976,-0.067503095]},{"inputs":[0.0,0.0,0.0,0.0,0.0,0.0],"outputs":[0.0,0.0,0.0,0.0],"weights":[[0.004434858,-0.05378098,-0.014643898,-0.0721413],[0.06404117,0.08240912,-0.097560875,-0.06834259],[0.03151758,-0.079944275,0.001438193,0.06713395],[0.0055850497,0.03587247,0.030506449,0.014227332],[0.02800827,-0.029507423,-0.0058415877,-0.062272776],[-0.045255538,-0.015413023,-0.036584526,-0.026669662]],"biases":[0.0023683403,0.09790508,-0.062824324,0.0044610105]}]}