{"levels":[{"inputs":[0.0,0.0,0.0,0.0,0.0],"outputs":[0.0,0.0,0.0,0.0,0.0,0.0],"weights":[[-0.04243313,0.019815903,0.016912263,-0.02112122,-0.06076385,0.059485078],[-0.00793311,-0.12301799,0.032404125,0.0064276373,-0.031323705,-0.047206316],[-0.042469148,-0.036735673,0.04146616,-0.03273724,0.03474297,0.02206638],[-0.058418285,0.024335518,-0.0061398624,-0.113604546,-0.009851901,0.010295907],[-0.068475455,-0.0012735152,-0.045099225,0.042253032,-0.07206235,0.0023961803]],"biases":[0.037203923,-0.06729413,0.02859257,0.09782298,0.07341555,-0.05310969]},{"inputs":[0.0,0.0,0.0,0.0,0.0,0.0],"outputs":[0.0,0.0,0.0,0.0],"weights":[[0.010191282,-0.038481034,-0.00033749547,-0.053598683],[0.07845278,0.07012464,-0.09072165,-0.058970243],[0.029366527,-0.10394203,-0.0019792542,0.06834691],[0.013673952,0.023034487,0.035507716,0.016622208],[0.030525729,-0.012275047,-0.01302412,-0.054549057],[-0.0484206,-0.0202706,-0.038308155,-0.022288013]],"biases":[-0.0029693227,0.09426087,-0.04296331,-0.00042360625]}]}